//This version of code only support dense layer, with linear, relu or softmax activation function.

#include <avr/pgmspace.h>

#define LAYER_COUNT          3

const PROGMEM uint16_t layerSize[] = { 150, 10, 5, 2 };

enum State { AF_linear = 0, AF_relu = 1, AF_softmax = 2 };

const PROGMEM uint8_t activationFunc[] = { 1, 1, 2 };

#define BUFFER_IN_SIZE          150
#define BUFFER_OUT_SIZE          10

const float layerWeightArray0[] PROGMEM = { 0.16572482883930206, 0.05263432115316391, 0.08014707267284393, 0.3965612053871155, 0.07087141275405884, 0.019672637805342674, 0.4159057140350342, 0.12205254286527634, 0.012540251947939396, 0.21613648533821106, 0.06813231110572815, -0.04938127100467682, 0.3210355341434479, -0.028448961675167084, -0.10419117659330368, -0.1163090243935585, 0.104266457259655, 0.21282057464122772, 0.07798399031162262, -0.1126633882522583, 0.16375179588794708, 0.03052557073533535, 0.14147290587425232, -0.02299104817211628, -0.24627287685871124, 0.20146387815475464, -0.09941025078296661, -0.38482657074928284, 0.11117984354496002, -0.26257169246673584, -0.368240624666214, -0.15491102635860443, -0.136050745844841, -0.25552529096603394, -0.03987259045243263, -0.30165550112724304, -0.4200594425201416, 0.012129619717597961, -0.062378160655498505, -0.18442413210868835, 0.0681062862277031, -0.25266119837760925, -0.306955486536026, 0.028850240632891655, -0.09934378415346146, 0.10416794568300247, -0.14525040984153748, -0.09592048823833466, 0.028649233281612396, 0.05110049620270729, 0.01199768390506506, 0.2564382255077362, -0.0429937019944191, 0.2301301211118698, -0.040834758430719376, 0.10982508957386017, 0.21573007106781006, 0.13978423178195953, 0.19625061750411987, 0.1942318230867386, 0.05724848434329033, -0.02125864289700985, 0.2186887562274933, 0.24367837607860565, -0.03197802975773811, 0.10777391493320465, 0.22004571557044983, -0.06265324354171753, -0.14293496310710907, 0.32026875019073486, 0.12172910571098328, 0.10957232862710953, 0.3529793620109558, -0.03526832535862923, -0.16539941728115082, -0.018935002386569977, -0.0681154802441597, 0.15622134506702423, 0.09669782966375351, 0.1162131279706955, 0.15926991403102875, 0.0361349955201149, 0.18304342031478882, -0.10595705360174179, 0.03885529562830925, -0.1332400143146515, 0.08763344585895538, 0.1539839208126068, 0.1481282114982605, -0.018594840541481972, 0.23657791316509247, 0.1722795069217682, -0.07770676165819168, 0.05630810931324959, 0.01749667525291443, 0.015960287302732468, -0.1256721317768097, 0.10366126894950867, 0.2408965826034546, 0.14328396320343018, -0.17879261076450348, 0.08434901386499405, -0.061823032796382904, -0.1508251130580902, 0.1731795221567154, -0.15607044100761414, -0.2063901424407959, 0.11456755548715591, 0.042907439172267914, -0.10251839458942413, 0.027291955426335335, 0.10857390612363815, 0.22940166294574738, -0.10319844633340836, 0.08975451439619064, -0.028101610019803047, -0.07948795706033707, 0.044656138867139816, -0.009217280894517899, -0.08132710307836533, 0.09958881139755249, 0.04021545127034187, 0.09310377389192581, 0.019191235303878784, -0.03912440687417984, -0.12280953675508499, 0.19149479269981384, 0.18506425619125366, 0.02225980907678604, 0.02188112773001194, -0.009982364252209663, 0.08081994205713272, 0.08471444249153137, 0.09353914111852646, 0.0017817863263189793, -0.009460185654461384, -0.1253190040588379, 0.02016451768577099, 0.05435400456190109, -0.03072517365217209, 0.11016642302274704, 0.044876594096422195, -0.04433489590883255, 0.13039107620716095, -0.057843130081892014, -0.08368322253227234, 0.1017606109380722, -0.09300584346055984, 0.12869305908679962, -0.04058298468589783, 0.19490912556648254, 0.10263359546661377, 0.31575098633766174, 0.3042876720428467, -0.004950615111738443, 0.1202554851770401, 0.35895654559135437, 0.19161029160022736, 0.28893861174583435, 0.3194095194339752, 0.2372005432844162, 0.1008945032954216, -0.04783276468515396, -0.010740388184785843, 0.014387781731784344, 0.17325836420059204, 0.016244905069470406, 0.27066564559936523, -0.029438624158501625, 0.15374793112277985, -0.011598877608776093, 0.16580559313297272, 0.02660823054611683, -0.0075822328217327595, 0.141023650765419, -0.03961832448840141, 0.2510906457901001, -0.07711858302354813, 0.08882654458284378, -0.06483227759599686, 0.1257762461900711, 0.14150267839431763, 0.13601826131343842, -0.13801053166389465, 0.018031978979706764, 0.055685702711343765, 0.15013176202774048, 0.28003764152526855, -0.0045015509240329266, 0.02088669128715992, 0.21056830883026123, 0.09686725586652756, -0.1135353222489357, 0.22043263912200928, -0.06783660501241684, -0.09247898310422897, -0.06623373925685883, 0.03346819803118706, 0.07104065269231796, -0.10032223910093307, 0.1585504412651062, -0.01859237067401409, 0.21120060980319977, 0.027575431391596794, 0.12552934885025024, 0.16303494572639465, 0.04148728400468826, 0.3588137924671173, 0.16107779741287231, 0.07937991619110107, 0.24973447620868683, 0.13103488087654114, 0.04089053347706795, 0.065989188849926, 0.10785435140132904, 0.33075764775276184, 0.18428866565227509, 0.049790527671575546, -0.012036130763590336, 0.058826740831136703, 0.02355475351214409, 0.1603480577468872, 0.3359469473361969, 0.12900300323963165, 0.12325665354728699, 0.28962019085884094, 0.31756284832954407, -0.018856007605791092, 0.03691235929727554, 0.2778931260108948, 0.3061957359313965, 0.04234885051846504, 0.24787984788417816, 0.3094070851802826, 0.13223420083522797, 0.06291857361793518, 0.28327077627182007, 0.2678905427455902, 0.1634514331817627, 0.16962212324142456, 0.141323521733284, 0.23282299935817719, 0.2596980631351471, 0.23712216317653656, 0.18824349343776703, 0.3124682307243347, -0.008782451041042805, 0.06633809953927994, 0.003326446982100606, 0.097321055829525, 0.08297313004732132, 0.28351110219955444, 0.10540086030960083, 0.04287727549672127, 0.2966870069503784, -0.03965727239847183, -0.054575297981500626, 0.28605836629867554, -0.07502294331789017, 0.21052059531211853, 0.055756475776433945, 0.30558982491493225, 0.15266670286655426, 0.3132799565792084, 0.06738966703414917, 0.18474026024341583, 0.12075907737016678, 0.26658564805984497, 0.011095818132162094, 0.07878582924604416, 0.2826464772224426, 0.09847525507211685, 0.2750821113586426, 0.03157733753323555, 0.2086542546749115, -0.07995408028364182, -0.03999926522374153, -0.06220417842268944, 0.13831177353858948, -0.043927326798439026, 0.16283908486366272, 0.13223329186439514, 0.12014065682888031, 0.04514676705002785, 0.15621937811374664, -0.021460218355059624, 0.298322856426239, 0.07971101999282837, 0.00881900079548359, 0.16035057604312897, 0.1594768762588501, 0.26284661889076233, 0.004699799232184887, 0.16715365648269653, 9.898786811390892e-05, 0.12318168580532074, 0.04534943401813507, 0.29388588666915894, 0.03949405252933502, -0.028511203825473785, 0.10951170325279236, -0.08846858888864517, 0.17811360955238342, -0.175028994679451, -0.1340654194355011, -0.0671839565038681, 0.14509814977645874, -0.16026373207569122, 0.13608476519584656, -0.061136260628700256, 0.1728082001209259, -0.006145864725112915, 0.18481633067131042, -0.013229280710220337, 0.022189319133758545, -0.022384896874427795, -0.09625739604234695, -0.03418929874897003, 0.025347590446472168, 0.12754157185554504, -0.12175813317298889, -0.007085174322128296, 0.005301609635353088, -0.08580464869737625, -0.013573899865150452, -0.0398196280002594, 0.07539987564086914, -0.08244585990905762, -0.18616892397403717, -0.09754312038421631, 0.0787297785282135, -0.10570890456438065, -0.14410725235939026, 0.019009992480278015, -0.17310284078121185, -0.18942737579345703, 0.09662166237831116, 0.11568304896354675, -0.15696454048156738, -0.06759953498840332, -0.17576244473457336, -0.10468001663684845, -0.11442913115024567, 0.019428938627243042, 0.1381610631942749, -0.18190184235572815, 0.193141907453537, -0.09212405979633331, 0.016117796301841736, 0.11173224449157715, -0.19326582551002502, -0.1276857554912567, 0.1668291687965393, 0.00483173131942749, -0.04339763522148132, 0.023000702261924744, 0.04901042580604553, -0.05864822864532471, -0.009489968419075012, -0.057870134711265564, -0.15942515432834625, -0.06457579135894775, 0.07011368870735168, -0.05160616338253021, 0.0781230628490448, -0.12233170121908188, 0.17492446303367615, -0.16838856041431427, 0.10230877995491028, 0.09546908736228943, -0.02788257598876953, -0.013537287712097168, 0.15451392531394958, -0.05291341245174408, -0.15124931931495667, 0.059527695178985596, 0.028032541275024414, 0.186290442943573, 0.09586745500564575, -0.021966829895973206, 0.06094583868980408, -0.13485154509544373, 0.18877887725830078, 0.15988698601722717, -0.12003730237483978, 0.15737828612327576, -0.00817561149597168, 0.08976268768310547, -0.19120551645755768, -0.09792476147413254, -0.13494697213172913, 0.10177978873252869, -0.08326421678066254, -0.0701366439461708, -0.012846499681472778, -0.03072907030582428, -0.06518939137458801, 0.15390175580978394, -0.08635679632425308, 0.06470155715942383, -0.07292694598436356, 0.030778661370277405, -0.19160737097263336, 0.007702142000198364, 0.0847976803779602, -0.1696898490190506, 0.08143359422683716, -0.16875527799129486, 0.002500399947166443, -0.11980100721120834, 0.16202068328857422, 0.1447831392288208, -0.09495306015014648, 0.0446314662694931, 0.1250307261943817, -0.022598937153816223, 0.04370276629924774, 0.04752242565155029, 0.09318223595619202, -0.07375495135784149, 0.17372092604637146, 0.023088157176971436, -0.15338793396949768, 0.000560268759727478, 0.17306891083717346, 0.13499715924263, -0.07067128270864487, 0.05440279841423035, 0.04057754576206207, -0.03259649872779846, -0.1849573403596878, 0.1761583387851715, -0.14195755124092102, 0.12997418642044067, 0.0859607458114624, 0.037135928869247437, 0.014296084642410278, -0.09215199947357178, 0.15941527485847473, 0.06921938061714172, -0.00016455352306365967, -0.11743250489234924, 0.12657445669174194, -0.12297192960977554, 0.12653008103370667, -0.15463285148143768, -0.024053364992141724, 0.06175801157951355, -0.05733396112918854, -0.040598511695861816, 0.3410596549510956, 0.09073968231678009, 0.1618167608976364, 0.4115723967552185, 0.10010069608688354, 0.1051870733499527, 0.2078562080860138, 0.06425157189369202, -0.06631174683570862, 0.1048707365989685, 0.1474824845790863, 0.12175516784191132, 0.03932785242795944, 0.171125590801239, 0.017512094229459763, 0.1077774167060852, 0.05244657024741173, -0.05559417977929115, 0.0788365826010704, -0.11647818982601166, 0.09916501492261887, -0.1731601357460022, 0.11355516314506531, -0.1317373812198639, -0.18935073912143707, -0.0760536789894104, 0.015886221081018448, -0.38084766268730164, 0.09765462577342987, -0.29233938455581665, -0.25160834193229675, -0.1855272501707077, -0.1487492173910141, -0.2544218897819519, -0.12258586287498474, -0.20531445741653442, -0.21700085699558258, 0.08175135403871536, -0.20464617013931274, -0.3905634582042694, -0.07974696159362793, -0.11269785463809967, -0.11109983175992966, 0.0979442372918129, 0.019557131454348564, -0.035406745970249176, 0.057326022535562515, 0.01137490477412939, -0.1746329963207245, -0.11663352698087692, -0.023895438760519028, -0.050014231353998184, -0.06273937970399857, 0.21369662880897522, -0.004693847615271807, -0.0007765952032059431, 0.09259574115276337, 0.3012354075908661, 0.06285839527845383, -0.12107860296964645, 0.3360133767127991, 0.07787199318408966, -0.016857778653502464, 0.28239119052886963, -0.0658663734793663, 0.1990397572517395, 0.04434434324502945, 0.1870444118976593, 0.06242799013853073, 0.136696457862854, 0.11156473308801651, -0.15920302271842957, 0.1106974184513092, 0.02295052446424961, 0.13176171481609344, -0.02269946038722992, -0.17955444753170013, -0.07792248576879501, 0.053346987813711166, -0.02731255628168583, 0.0790051519870758, -0.03517403081059456, -0.035819701850414276, 0.02900460548698902, -0.024061787873506546, 0.06758376210927963, 0.17007939517498016, 0.049083322286605835, 0.1538340449333191, 0.07815632969141006, 0.07681161165237427, -0.045047711580991745, 0.14492028951644897, -0.04815616458654404, 0.17146457731723785, 0.1784840077161789, -0.041897017508745193, -0.08576475083827972, -0.13149981200695038, -0.04632364958524704, 0.10214263945817947, 0.04639408364892006, -0.027056312188506126, 0.08128689229488373, -0.08721651881933212, 0.17404012382030487, -0.14277362823486328, -0.08168471604585648, -0.1476323902606964, -0.08952188491821289, 0.19555681943893433, -0.02173980511724949, -0.0032406265381723642, 0.12529383599758148, 0.0018542413599789143, 0.09841697663068771, 0.16816319525241852, 0.05892007052898407, 0.07169191539287567, -0.11399271339178085, -0.19834481179714203, -0.15071327984333038, 0.08894439786672592, -0.029326923191547394, 0.09129337966442108, -0.08684325218200684, -0.037470493465662, 0.06459539383649826, 0.17969468235969543, -0.1812024861574173, -0.19276659190654755, -0.02795986831188202, 0.035080891102552414, 0.021028857678174973, 0.08530087023973465, -0.19269222021102905, 0.10046915709972382, 0.10353680700063705, -0.16959156095981598, 0.08863106369972229, -0.04564076289534569, 0.15732510387897491, -0.15580818057060242, 0.10901746153831482, -0.032595470547676086, 0.06826948374509811, 0.08317089825868607, 0.08242274820804596, 0.044864241033792496, -0.10410237312316895, 0.07764515280723572, 0.0019515901803970337, -0.0995754599571228, 0.03465695679187775, -0.13282765448093414, 0.0288001149892807, -0.0149097740650177, 0.14546135067939758, -0.12911386787891388, 0.05583040416240692, 0.11237221956253052, -0.068911112844944, 0.044137731194496155, 0.05676168203353882, -0.15223106741905212, -0.08056098967790604, 0.07656615972518921, -0.10748568922281265, 0.1554032862186432, -0.0967785120010376, 0.0691341757774353, 0.18865200877189636, 0.07593527436256409, 0.06046789884567261, -0.12394116818904877, -0.10782374441623688, 0.06229636073112488, 0.07943916320800781, -0.16598039865493774, 0.17307764291763306, 0.010483860969543457, 0.0065969377756118774, -0.10994371026754379, 0.1439950168132782, -0.10206972807645798, -0.05400961637496948, 0.014845222234725952, -0.14876608550548553, -0.10730364173650742, -0.015226304531097412, 0.1341446042060852, -0.11122459173202515, -0.07251760363578796, -0.08541230112314224, 0.18718761205673218, 0.10088866949081421, -0.02517057955265045, 0.18479028344154358, -0.01671181619167328, -0.1898922622203827, -0.06675277650356293, 0.05695191025733948, -0.1662241816520691, 0.08326786756515503, 0.07075068354606628, 0.0009252876043319702, -0.13079383969306946, -0.10924073308706284, -0.12971711158752441, -0.0822296068072319, -0.06984277069568634, -0.10801899433135986, -0.07077548652887344, 0.0038634687662124634, 0.1883849799633026, 0.1162283718585968, 0.08162108063697815, 0.14388415217399597, 0.11146670579910278, -0.11837288737297058, 0.1390959620475769, -0.18842074275016785, -0.024688154458999634, 0.026086673140525818, 0.005803793668746948, -0.1918538212776184, -0.1296457052230835, 0.06389501690864563, 0.09553757309913635, -0.1477436125278473, -0.15805812180042267, 0.06397435069084167, 0.1916951835155487, -0.07684184610843658, 0.013252511620521545, 0.16076433658599854, -0.08166716247797012, -0.05457639694213867, -0.06396377086639404, 0.029466331005096436, -0.04294674098491669, 0.09601154923439026, -0.1897437870502472, 0.0975518524646759, 0.03428708016872406, -0.09427510201931, 7.428228855133057e-05, -0.07736596465110779, -0.05861184000968933, 0.020769238471984863, -0.19230832159519196, -0.1809011995792389, 0.007890522480010986, -0.19248902797698975, 0.02675032615661621, -0.1396813839673996, -0.17340178787708282, 0.15717411041259766, 0.15890631079673767, -0.08841392397880554, -0.08341030031442642, 0.10713911056518555, -0.088616281747818, 0.12810349464416504, 0.12686097621917725, -0.1846049726009369, -0.07188674807548523, -0.07784169167280197, 0.1875743269920349, 0.106446772813797, 0.18179988861083984, -0.13942474126815796, 0.07582804560661316, -0.13294215500354767, -0.1049913838505745, 0.09983068704605103, -0.18872439861297607, 0.11986759305000305, 0.08293336629867554, -0.12679582834243774, -0.060778483748435974, 0.09939420223236084, 0.04568962752819061, -0.05968509614467621, 0.18277832865715027, -0.17409636080265045, 0.14822161197662354, 0.04490341246128082, 0.08362632989883423, 0.10551342368125916, -0.070969358086586, -0.07550708204507828, 0.11919841170310974, 0.16096097230911255, 0.01279875636100769, -0.18914228677749634, 0.017158180475234985, 0.1742846965789795, -0.1260305643081665, -0.18461179733276367, -0.18153057992458344, -0.010086849331855774, -0.12367643415927887, -0.10560695827007294, 0.19025114178657532, 0.01374661922454834, 0.06450048089027405, -0.05944852530956268, -0.14420360326766968, -0.01767846941947937, -0.06460738182067871, 0.15647533535957336, -0.026034966111183167, -0.1853906810283661, 0.17015963792800903, 0.06697463989257812, -0.018353596329689026, 0.10802647471427917, 0.08311489224433899, -0.08998239785432816, -0.151624858379364, -0.1674049198627472, -0.1151643842458725, 0.06354117393493652, 0.13656267523765564, -0.08042977750301361, -0.1653447449207306, 0.16733020544052124, -0.1774090826511383, 0.07736364006996155, 0.08510121703147888, -0.026890307664871216, 0.191687673330307, 0.10282367467880249, 0.16743746399879456, -0.16711756587028503, -0.15186525881290436, 0.0696505606174469, 0.03081125020980835, -0.17735441029071808, -0.1475992351770401, 0.1854899823665619, 0.035498395562171936, 0.04126136004924774, 0.013631701469421387, 0.08844664692878723, -0.013227075338363647, -0.010691016912460327, 0.06011858582496643, -0.023190408945083618, 0.06314966082572937, 0.00648169219493866, 0.1833001673221588, 0.05373960733413696, 0.17277470231056213, -0.1408361792564392, -0.18928629159927368, -0.10070343315601349, 0.16293427348136902, 0.0010210424661636353, -0.1264563947916031, 0.14867448806762695, -0.16218295693397522, -0.14468035101890564, -0.18345706164836884, -0.06032952666282654, -0.012614905834197998, -0.11673784255981445, 0.027084916830062866, -0.0004323720932006836, -0.012147903442382812, -0.12562939524650574, -0.08612765371799469, -0.08980325609445572, 0.03800682723522186, 0.1589093804359436, 0.14240732789039612, 0.012808501720428467, 0.015326723456382751, 0.11625522375106812, -0.1371232271194458, 0.037051811814308167, 0.08230781555175781, 0.11085760593414307, 0.1832524836063385, -0.03111274540424347, 0.15707626938819885, -0.15337145328521729, -0.08266571909189224, 0.016815364360809326, 0.1421060860157013, 0.09644678235054016, 0.04845282435417175, -0.1465316116809845, 0.15512990951538086, -0.026231840252876282, -0.15026544034481049, 0.05803847312927246, 0.07044047117233276, 0.019102558493614197, -0.053815796971321106, -0.12576675415039062, 0.07237425446510315, -0.017043262720108032, -0.1666940450668335, -0.0286501944065094, -0.16316354274749756, -0.08368172496557236, -0.0067818015813827515, -0.049930259585380554, -0.09743236005306244, -0.027830496430397034, -0.10996615141630173, 0.059117019176483154, 0.06149572134017944, -0.16884009540081024, 0.17722997069358826, 0.062100738286972046, -0.11336062848567963, 0.13010960817337036, -0.04032453894615173, -0.1274431347846985, -0.17280994355678558, 0.02944764494895935, 0.10198214650154114, 0.04184481501579285, -0.0035407841205596924, -0.12213589251041412, 0.1616101861000061, 0.09632831811904907, -0.10507859289646149, -0.0797182098031044, 0.005208522081375122, 0.05002143979072571, -0.09998530894517899, -0.0004396289587020874, -0.09456241875886917, 0.06127163767814636, 0.033313408493995667, -0.12780675292015076, -0.12916478514671326, 0.0740756094455719, 0.011099353432655334, -0.1919178068637848, 0.0542517751455307, 0.17290648818016052, 0.16322800517082214, -0.012989476323127747, -0.10822085291147232, 0.15950345993041992, 0.09699908643960953, -0.017381666228175163, 0.06029321625828743, 0.175056591629982, 0.2030894160270691, 0.236619234085083, 0.3541405200958252, 0.11044955253601074, 0.06757742911577225, 0.12079092860221863, -0.021981513127684593, 0.032978735864162445, 0.2175661325454712, -0.027052752673625946, 0.053235363215208054, -0.02634652704000473, -0.08119373768568039, 0.08959036320447922, 0.14003002643585205, 0.041888847947120667, 0.12734933197498322, -0.2746754288673401, 0.07614699006080627, 0.048698198050260544, -0.16839653253555298, -0.15690402686595917, -0.23344065248966217, -0.18804185092449188, 0.15912775695323944, -0.05789969116449356, -0.14127328991889954, -0.13494190573692322, -0.2767705023288727, -0.31639257073402405, 0.09533663094043732, -0.29783979058265686, -0.3178071081638336, -0.07665564119815826, -0.11245382577180862, -0.23766019940376282, 0.19704997539520264, -0.31577613949775696, -0.32390034198760986, 0.08770453184843063, -0.2988991439342499, 0.0424567349255085, -0.09329784661531448, 0.06791148334741592, -0.04963432997465134, 0.1178341880440712, 0.1631377637386322, 0.23062673211097717, -0.019279994070529938, 0.1536678969860077, 0.041065800935029984, -0.1383340060710907, -0.03909124433994293, 0.09010034799575806, -0.006036403123289347, -0.020909851416945457, 0.1622401773929596, -0.11494582891464233, 0.07082907855510712, 0.07068228721618652, 0.05335560813546181, 0.2009439915418625, 0.3057626783847809, -0.026969224214553833, 0.10056307911872864, 0.26177769899368286, 0.01289607398211956, 0.16241306066513062, 0.24916119873523712, -0.17471252381801605, 0.06170047074556351, 0.19322720170021057, 0.003694486105814576, -0.05819771811366081, 0.14723695814609528, 0.10257267206907272, 0.0744452029466629, -0.09643477201461792, 0.013231692835688591, 0.047533780336380005, 0.204884335398674, 0.017211010679602623, -0.03524935990571976, -0.0057533117942512035, 0.08048047125339508, 0.1998944878578186, -0.007180712651461363, 0.10155860334634781, 0.03260917589068413, -0.13356991112232208, 0.0737789049744606, 0.13677968084812164, -0.14082911610603333, 0.13877782225608826, 0.1021767184138298, 0.0536867156624794, -0.11846668273210526, 0.03990830481052399, 0.21080441772937775, 0.1963399350643158, 0.12463276833295822, 0.05287015065550804, 0.15514935553073883, -0.10760407149791718, -0.08940982073545456, 0.12275245040655136, 0.011862010695040226, -0.11364047229290009, -0.08439972996711731, -0.053239017724990845, 0.057576701045036316, -0.06271517276763916, -0.035812120884656906, 0.10123848915100098, 0.1835303008556366, 0.09676254540681839, -0.15183955430984497, 0.012119087390601635, 0.18063315749168396, -0.06455916911363602, 0.18119727075099945, -0.02352614887058735, -0.1570071280002594, 0.04527025669813156, 0.14923666417598724, -0.003696671687066555, -0.07452422380447388, 0.10271674394607544, -0.097578264772892, -0.14318126440048218, -0.06825152784585953, -0.1986437439918518, -0.07428549975156784, -0.04300719499588013, -0.08470643311738968, -0.11797580122947693, -0.11945924162864685, -0.12327245622873306, 0.03734446316957474, -0.16291368007659912, -0.004591305274516344, 0.08182437717914581, -0.11289723962545395, 0.08243349939584732, -0.020603105425834656, -0.1639956384897232, -0.021640628576278687, -0.08816120028495789, 0.04241044446825981, -0.0350143127143383, 0.17377322912216187, 0.14037764072418213, -0.14700043201446533, 0.21636678278446198, 0.11526325345039368, -0.26302626729011536, -0.1151004433631897, -0.12347248941659927, -0.11086923629045486, 0.014272285625338554, 0.135260671377182, -0.05717975273728371, 0.14718972146511078, -0.03819853067398071, 0.24198280274868011, 0.1410546451807022, -0.08309739083051682, 0.08330202847719193, 0.049253933131694794, 0.03824559971690178, 0.4565240144729614, 0.21359999477863312, 0.3592001795768738, 0.35389941930770874, -0.1410970240831375, 0.13814520835876465, 0.5144439935684204, -0.006644297391176224, 0.01723637990653515, 0.28429949283599854, -0.054290398955345154, 0.1048601046204567, 0.45662158727645874, 0.013042157515883446, 0.31610894203186035, 0.17917592823505402, 0.09577905386686325, 0.35409361124038696, 0.28380945324897766, 0.11393730342388153, 0.030919309705495834, 0.014372821897268295, -0.004883549176156521, 0.019436487928032875, -0.0979456901550293, 0.2801949679851532, 0.14754101634025574, -0.11814310401678085, -0.049536485224962234, -0.1995076984167099, 0.1409655511379242, -0.01068277657032013, -0.1336122751235962, -0.03298802301287651, 0.025838008150458336, 0.06016048789024353, -0.216223806142807, -0.06520078331232071, -0.06234302744269371, -0.05682525783777237, 0.1462317407131195, -0.14143560826778412, -0.04195655882358551, 0.06410544365644455, -0.14354164898395538, -0.06545073539018631, -0.09280339628458023, 0.0813416838645935, -0.051224686205387115, 0.15780621767044067, -0.07390642166137695, -0.05827805772423744, 0.21237391233444214, -0.09388429671525955, 0.05915803834795952, 0.011441304348409176, 0.06626363098621368, 0.1660047322511673, 0.12737447023391724, 0.2096533328294754, -0.13823598623275757, -0.10887649655342102, 0.027268266305327415, -0.106073759496212, 0.0775156170129776, -0.0425875261425972, -0.14557647705078125, 0.1687200963497162, -0.13720352947711945, -0.08737597614526749, 0.2005193829536438, 0.019850006327033043, 0.22021079063415527, 0.24074263870716095, 0.10158377885818481, 0.15714409947395325, 0.15413303673267365, -0.09646081924438477, 0.10890570282936096, -0.10476087778806686, -0.06726471334695816, 0.1180061399936676, 0.06735661625862122, 0.0675448477268219, 0.22149993479251862, 0.15192978084087372, 0.21205687522888184, 0.16051389276981354, -0.11124702543020248, 0.01878473348915577, 0.19271686673164368, 0.07748652994632721, -0.07729990780353546, 0.25612062215805054, -0.023318342864513397, 0.11317352205514908, 0.275197297334671, 0.27256789803504944, 0.1382869929075241, -0.06538662314414978, -0.005373730789870024, 0.08726446330547333, 0.04211835190653801, -0.06128445640206337, 0.16947521269321442, 0.2536374628543854, -0.09539314359426498, 0.2514154314994812, -0.060234542936086655, 0.076426200568676, 0.1723722219467163, 0.2939927577972412, 0.26002398133277893, 0.29710689187049866, -0.08515411615371704, -0.04430476948618889, 0.30735868215560913, 0.10605565458536148, 0.18188486993312836, -0.08595634251832962, 0.20448140799999237, 0.27051857113838196, 0.2028125822544098, -0.06997735798358917, 0.25459033250808716, 0.2617497742176056, 0.13913998007774353, -0.16782255470752716, 0.11138494312763214, 0.13926932215690613, -0.15323200821876526, 0.13694433867931366, 0.28553181886672974, 0.14244584739208221, -0.1302436739206314, 0.12998329102993011, -0.059628020972013474, 0.08755075186491013, 0.27273377776145935, -0.1384071707725525, 0.16258977353572845, 0.040213692933321, -0.12319464236497879, -0.04250715300440788, -0.03378039598464966, -0.09166204929351807, -0.07311028987169266, -0.11475073546171188, -0.08985646814107895, -0.21553805470466614, -0.18829919397830963, -0.1660105139017105, -0.018085045740008354, -0.3372657001018524, 0.13641846179962158, -0.09117350727319717, -0.2071889340877533, 0.10050768405199051, -0.30422481894493103, -0.3311532139778137, 0.0005447832518257201, -0.1607363522052765, -0.18112461268901825, 0.1245848685503006, -0.009279072284698486, -0.12283025681972504, 0.17659899592399597, -0.3493550419807434, -0.1462545096874237, 0.03468559309840202, -0.19563321769237518, -0.23228876292705536, -0.055993467569351196, 0.021994736045598984, -0.16231046617031097, 0.10380018502473831, 0.1529008001089096, 0.2358550876379013, 0.004884243477135897, 0.1753755360841751, 0.2943728566169739, 0.19769975543022156, 0.03235118091106415, 0.18446144461631775, 0.1702203005552292, 0.08178304135799408, 0.40631103515625, -0.004570170771330595, 0.14718395471572876, 0.10419928282499313, 0.20064052939414978, 0.026034075766801834, 0.08339127898216248, 0.01869324967265129, -0.02570694126188755, 0.27026495337486267, 0.03479123115539551, -0.0840257778763771, 0.1386103630065918, -0.15354202687740326, 0.009471449069678783, 0.24970541894435883, 0.022444650530815125, -0.01591600477695465, -0.09499486535787582, -0.11299911886453629, 0.035712771117687225, 0.2578422725200653, -0.10382811725139618, 0.05230589956045151, 0.011908099986612797, -0.16595430672168732, 0.14498716592788696, 0.0438835546374321, -0.1465577483177185, 0.15199732780456543, 0.04420042783021927, -0.15473420917987823, 0.25102975964546204, -0.036815740168094635, 0.07865466922521591, 0.12542475759983063, -0.2091929316520691, -0.10925650596618652, 0.07271800190210342, 0.17784914374351501, -0.008650473318994045, 0.20628784596920013, 0.020742477849125862, 0.006681854370981455, -0.044759828597307205, -0.0014962791465222836, 0.05057601258158684, 0.003354510059580207, -0.023955289274454117, 0.18158765137195587, -0.12324412167072296, -0.16171711683273315, -0.1061183512210846, -0.14177051186561584, 0.11455680429935455, -0.05890299752354622, -0.0326540544629097, 0.17061127722263336, -0.1830475628376007, 0.013721457682549953, 0.024967780336737633, 0.10578280687332153, -0.1740935891866684, 0.013652065768837929, -0.058378081768751144, -0.013104838319122791, 0.13519394397735596, 0.17237958312034607, 0.11957016587257385, -0.06889484822750092, -0.040129970759153366, -0.055848151445388794, -0.05298701301217079, 0.1788548231124878, -0.001134349498897791, 0.1122952401638031, 0.155147984623909, -0.05108872056007385, -0.1974591165781021, 0.031132832169532776, -0.032155927270650864, -0.08088530600070953, -0.14398737251758575, 0.005414703860878944, 0.013160748407244682, 0.13188937306404114, 0.15186168253421783, 0.08910712599754333, 0.02463766559958458, 0.1492820829153061, -0.18999376893043518, 0.014835972338914871, 0.03409517556428909, -0.012923495844006538, -0.05142585188150406, 0.1325802505016327, 0.15813672542572021, 0.10180684924125671, 0.011508781462907791, 0.08764530718326569, 0.010699441656470299, -0.14691367745399475, -0.0047456687316298485, 0.1687343865633011, -0.08636816591024399, -0.020888684317469597, -0.06820739060640335, -0.11280881613492966, -0.04244627058506012, -0.15600283443927765, -0.07658460736274719, -0.1919986456632614, 0.11677465587854385, -0.16556717455387115, -0.10373459756374359, -0.07939270883798599, 0.08232461661100388, -0.09338869154453278, 0.1517629474401474, 0.033864229917526245, -0.19460704922676086, -0.1833840012550354, 0.1367914229631424, 0.08132020384073257, 0.09285084903240204, -0.060061223804950714, -0.05577300488948822, -0.11192255467176437, 0.15987491607666016, 0.05688732862472534, -0.11087878793478012, -0.03866562247276306, 0.10640660673379898, 0.1565018892288208, -0.09015649557113647, -0.1546710878610611, 0.09827280044555664, -0.021722957491874695, -0.0017108924221247435, 0.018671445548534393, 0.18289349973201752, -0.050961706787347794, -0.008716463111341, 0.14884263277053833, 0.04532019793987274, 0.06475099921226501, 0.03255844488739967, 0.023991933092474937, 0.003331066109240055, 0.14884178340435028, -0.024811265990138054, 0.06450936943292618, 0.13954928517341614, 0.07462640851736069, 0.11656935513019562, 0.12496307492256165, -0.03470836207270622, 0.04932001978158951, -0.09879612177610397, -0.17361943423748016, -0.012240275740623474, -0.0726577565073967, -0.06887592375278473, 0.18368126451969147, 0.018692852929234505, 0.03817415609955788, 0.019200123846530914, -0.042010724544525146, -0.12914663553237915, 0.10345131903886795, -0.12555943429470062, -0.15416622161865234, 0.15846660733222961, 0.1387120485305786, 0.1096600815653801, 0.013524136506021023, -0.14029210805892944, -0.17336422204971313, 0.005403331480920315, -0.09233873337507248, -0.15659114718437195, 0.1749291867017746, 0.15117250382900238, 0.005448581650853157, -0.16147395968437195, -0.09330814331769943, -0.05046972632408142, -0.10074441879987717, -0.09162511676549911, -0.017641307786107063, 0.00028097699396312237, -0.0834149643778801, 0.05490073934197426, -0.13255025446414948, 0.04708322882652283, -0.08904426544904709, -0.01834341138601303, 0.17530669271945953, -0.0926370769739151, -0.10489071160554886, -0.11691222339868546, 0.12004354596138, 0.12206067144870758, 0.057647038251161575, -0.11971118301153183, -0.01380650419741869, 0.1026395633816719, -0.10458449274301529, -0.14877921342849731, -0.09657761454582214, 0.12042474001646042, -0.16198013722896576, -0.17164158821105957, 0.058367807418107986, 0.03207552060484886, 0.18180041015148163, -0.040724996477365494, -0.13724343478679657, 0.13784942030906677, -0.08901598304510117, 0.0752570703625679, 0.04131877422332764, -0.11664637178182602, 0.11957775056362152, 0.11408191174268723, 0.18796464800834656, -0.16802816092967987, -0.1640811711549759, 0.07903057336807251, -0.1485835760831833, -0.11428045481443405, 0.18381531536579132, 0.14127711951732635, -0.039635296911001205, 0.14878563582897186, 0.10485081374645233, -0.11789245158433914, 0.1616325080394745, 0.041927266865968704, -0.06480368971824646 };
const float layerWeightArray1[] PROGMEM = { 0.053227320313453674, 0.42471662163734436, 0.27136725187301636, -0.9525474309921265, 0.1759190559387207, -0.2498021423816681, -0.6063066124916077, 0.4322790801525116, -0.9391294121742249, -0.4350045323371887, 0.737857460975647, 0.2796047031879425, -0.1607321798801422, 0.5303447842597961, 0.5166506171226501, 0.12466871738433838, 0.7510079741477966, -0.5170124173164368, 0.5041882991790771, -0.45038431882858276, 0.5192332863807678, -0.2795736491680145, 0.47563403844833374, 0.00972903985530138, 0.36091625690460205, 0.46314388513565063, -0.5023097991943359, 0.08891643583774567, -0.3711920976638794, -0.1330665946006775, -0.16539263725280762, -0.06484092772006989, -0.3312968909740448, -0.5714674592018127, 0.3789791464805603, 0.5056396126747131, -0.5946050882339478, 0.7062535285949707, -0.680152177810669, -0.019504129886627197, 1.0566996335983276, -0.02276582643389702, 0.07453614473342896, 1.0542330741882324, 0.3467712998390198, 0.16768962144851685, 0.8915902376174927, -0.18445847928524017, 0.6545820236206055, 0.17497402429580688 };
const float layerWeightArray2[] PROGMEM = { 0.6970736384391785, -0.15217046439647675, -0.4386691451072693, 0.10456299036741257, -0.008045801892876625, -0.06144203990697861, 1.0885107517242432, -0.6192668080329895, -0.8761010766029358, 1.459194540977478 };
const float *const layerWeightArrays[] PROGMEM = {layerWeightArray0, layerWeightArray1, layerWeightArray2};

const float layerBaisArray0[] PROGMEM = { 0.014614192768931389, 0.1219940260052681, 0.0, -0.005726142320781946, 0.0, 0.0, 0.005459193605929613, 0.07254673540592194, 0.000564716465305537, -0.003145935945212841 };
const float layerBaisArray1[] PROGMEM = { 0.1716480553150177, -0.08218048512935638, -0.003162254113703966, 0.02261035516858101, 0.01854877732694149 };
const float layerBaisArray2[] PROGMEM = { 0.17251312732696533, -0.17251265048980713 };
const float *const layerBaisArrays[] PROGMEM = {layerBaisArray0, layerBaisArray1, layerBaisArray2};
